svm_type c_svc
kernel_type linear
nr_class 2
total_sv 165
rho -0.46098604323036629
label 0 1
nr_sv 156 9
SV
1 1:1 2:0.54 3:0.666667 4:0.169935 
1 1:1 2:0.54 3:1 4:0.460852 
1 1:1 2:0.57 3:0.458831 4:0.090909 
1 1:1 2:0.49 3:0.666667 4:0.625 
1 1:1 2:0.5 3:0 4:0.033333 
1 1:1 2:0.57 3:0.539841 4:0.529086 
1 1:1 2:0.38 3:0.819178 4:0.7 
1 1:1 2:0.335 3:0.409589 4:1.05 
1 1:1 2:0.455 3:0 4:0.135965 
1 1:1 2:0.52 3:0 4:0.125 
1 1:1 2:0.305 3:0.571772 4:1 
1 1:1 2:0.47 3:0.028823 4:0.032258 
1 1:1 2:0.53 3:0.041112 4:0.050311 
1 1:1 2:0.573333 3:0.050792 4:0.09897 
1 1:1 2:0.453333 3:0.028823 4:0.022222 
1 1:1 2:0.39 3:0.605286 4:0.25 
1 1:1 2:0.53 3:0.028823 4:0.021277 
1 1:1 2:0.44 3:0.452232 4:0.352564 
1 1:1 2:0.463333 3:0.041112 4:0.309524 
1 1:1 2:0.54 3:0.041112 4:0.225 
1 1:1 2:0.516667 3:0.452232 4:0.352941 
1 1:1 2:0.57 3:0.028823 4:0.055556 
1 1:1 2:0.526667 3:0.028823 4:0.047619 
1 1:1 2:0.603333 3:0.028823 4:0.037037 
1 1:1 2:0.47 3:0.08584 4:0.222222 
1 1:1 2:0.53 3:0.486366 4:0.529412 
1 1:1 2:0.573333 3:0.633259 4:0.2 
1 1:1 2:0.453333 3:0.069481 4:0.145 
1 1:1 2:0.39 3:1 4:0.971277 
1 1:1 2:0.53 3:0.048712 4:0.020833 
1 1:1 2:0.44 3:0.069481 4:0.050125 
1 1:1 2:0.463333 3:0.633259 4:1 
1 1:1 2:0.54 3:0.069481 4:0.171429 
1 1:1 2:0.516667 3:0.048712 4:0.083333 
1 1:1 2:0.57 3:0.069481 4:0.09127 
1 1:1 2:0.526667 3:0.048712 4:0.047619 
1 1:1 2:0.603333 3:0.048712 4:0.04 
1 1:1 2:0.5675 3:0.455552 4:0.285606 
1 1:1 2:0.5975 3:0.347097 4:0.164596 
1 1:1 2:0.4175 3:0.017015 4:0.022727 
1 1:1 2:0.5725 3:0.024216 4:0.045667 
1 1:1 2:0.4675 3:0.470739 4:0.5 
1 1:1 2:0.525 3:0.470739 4:1 
1 1:1 2:0.3875 3:0.024216 4:0.046653 
1 1:1 2:0.45 3:0.295188 4:0.566734 
1 1:1 2:0.605 3:0.347097 4:0.326923 
1 1:1 2:0.5425 3:0.017015 4:0.037037 
1 1:1 2:0.48 3:0.347097 4:0.201149 
1 1:1 2:0.455 3:0.295188 4:0.214583 
1 1:1 2:0.4075 3:0.024216 4:0.044444 
1 1:1 2:0.4025 3:0.497287 4:1.277713 
1 1:1 2:0.5675 3:-0.030663 4:0.046956 
1 1:1 2:0.5975 3:-0.021544 4:0.020408 
1 1:1 2:0.4175 3:-0.049442 4:0.141254 
1 1:1 2:0.5725 3:-0.043931 4:0.148592 
1 1:1 2:0.4675 3:0.378175 4:0.184848 
1 1:1 2:0.525 3:0.298178 4:0.164203 
1 1:1 2:0.3875 3:0.834683 4:0.466414 
1 1:1 2:0.45 3:-0.021544 4:0.014286 
0.76716357699752258 1:1 2:0.605 3:-0.030663 4:0.119298 
1 1:1 2:0.5425 3:0.970129 4:0.783333 
1 1:1 2:0.48 3:0.378175 4:0.134483 
1 1:1 2:0.455 3:0.552969 4:0.25 
1 1:1 2:0.4075 3:-0.021544 4:0.027778 
1 1:1 2:0.4025 3:0.378175 4:0.516393 
1 1:1 2:0.5675 3:0.395118 4:0.083333 
1 1:1 2:0.5975 3:-0.010131 4:0.02 
1 1:1 2:0.4175 3:0.162753 4:0.236143 
1 1:1 2:0.5725 3:0.395118 4:0.333333 
1 1:1 2:0.4675 3:0.562352 4:0.590909 
1 1:1 2:0.525 3:0.562352 4:1.125 
1 1:1 2:0.3875 3:1 4:1.001923 
1 1:1 2:0.45 3:0.562352 4:0.257576 
1 1:1 2:0.605 3:0.395118 4:0.25 
1 1:1 2:0.5425 3:-0.010131 4:0.025641 
1 1:1 2:0.48 3:-0.014419 4:0.048766 
1 1:1 2:0.455 3:0.456205 4:0.65873 
1 1:1 2:0.4075 3:-0.010131 4:0.032258 
1 1:1 2:0.4025 3:0.273966 4:1.041667 
1 1:1 2:0.472 3:0.829932 4:0.604994 
1 1:1 2:0.504 3:0.763868 4:1.157783 
1 1:1 2:0.532 3:-0.014283 4:0.027652 
1 1:0 2:0.036 3:0.299937 4:0.436651 
1 1:1 2:0.58 3:-0.010048 4:0.017241 
1 1:1 2:0.546 3:-0.014283 4:0.03373 
1 1:1 2:0.428 3:0.659837 4:0.142857 
1 1:1 2:0.476 3:0.461809 4:0.144231 
1 1:1 2:0.612 3:0.223763 4:0.081159 
1 1:1 2:0.39 3:-0.010048 4:0.033333 
1 1:1 2:0.434 3:-0.010048 4:0.034483 
1 1:1 2:0.596 3:-0.014283 4:0.072258 
1 1:1 2:0.244 3:-0.020408 4:0.100527 
1 1:1 2:0.586 3:-0.014283 4:0.06732 
1 1:1 2:0.474 3:-0.017583 4:0.093159 
1 1:1 2:0.342 3:0.959231 4:0.738095 
1 1:0.5 2:0.314 3:0.536058 4:0.451479 
1 1:0.5 2:0.324 3:0.324895 4:0.083333 
1 1:1 2:0.442 3:-0.010048 4:0.025641 
1 1:1 2:0.41 3:0.373143 4:0.558081 
1 1:1 2:0.472 3:0.410609 4:0.1625 
1 1:1 2:0.504 3:0.493137 4:0.512658 
1 1:1 2:0.532 3:0.25375 4:0.143478 
1 1:1 2:0.58 3:0.410609 4:0.195523 
1 1:1 2:0.546 3:0.014363 4:0.076065 
1 1:1 2:0.428 3:0.010105 4:0.017857 
1 1:1 2:0.476 3:0.25375 4:0.102941 
1 1:1 2:0.612 3:0.010105 4:0.012048 
1 1:1 2:0.39 3:0.971911 4:0.253968 
1 1:1 2:0.434 3:0.017682 4:0.106349 
1 1:1 2:0.596 3:0.010105 4:0.041667 
1 1:1 2:0.244 3:1 4:0.438095 
1 1:1 2:0.586 3:0.330613 4:0.346025 
1 1:1 2:0.474 3:0.346935 4:0.076923 
1 1:1 2:0.342 3:0.971911 4:1.333333 
1 1:0.5 2:0.314 3:-0.150503 4:0.121784 
1 1:0.5 2:0.324 3:0.533602 4:0.284077 
1 1:1 2:0.442 3:1 4:1.4 
1 1:1 2:0.41 3:0.607073 4:0.393541 
1 1:1 2:0.472 3:0.323843 4:0.105402 
1 1:1 2:0.504 3:0.29876 4:0.650259 
1 1:1 2:0.532 3:0.227832 4:0.066667 
1 1:1 2:0.58 3:-0.014542 4:0.017544 
1 1:1 2:0.546 3:0.115924 4:0.112338 
1 1:1 2:0.428 3:0.257294 4:0.294509 
1 1:1 2:0.476 3:0.323843 4:0.211765 
1 1:1 2:0.612 3:0.323843 4:0.137195 
1 1:1 2:0.39 3:0.323843 4:0.518519 
1 1:1 2:0.434 3:0.115924 4:0.114405 
1 1:1 2:0.596 3:0.470207 4:0.111111 
1 1:1 2:0.244 3:0.462729 4:0.2959 
1 1:1 2:0.586 3:-0.025447 4:0.066241 
1 1:1 2:0.474 3:-0.020671 4:0.059247 
1 1:1 2:0.342 3:0.668357 4:1.166667 
1 1:0.5 2:0.314 3:-0.143847 4:0.17264 
1 1:0.5 2:0.324 3:0.323843 4:0.138095 
1 1:1 2:0.442 3:0.470207 4:0.166667 
1 1:1 2:0.41 3:-0.014542 4:0.032258 
1 1:1 2:0.472 3:0.377472 4:0.27967 
1 1:1 2:0.504 3:0.076081 4:0.063748 
1 1:1 2:0.532 3:0.421902 4:0.216393 
1 1:1 2:0.58 3:0.053525 4:0.018868 
1 1:1 2:0.546 3:0.248991 4:0.162088 
1 1:1 2:0.428 3:0.421902 4:0.346667 
1 1:1 2:0.476 3:0.076081 4:0.043561 
1 1:1 2:0.612 3:0.053525 4:0.014085 
1 1:1 2:0.39 3:0.296819 4:0.090909 
1 1:1 2:0.434 3:0.053525 4:0.043478 
1 1:1 2:0.596 3:0.248991 4:0.188406 
1 1:1 2:0.244 3:0.89968 4:1.670387 
1 1:1 2:0.586 3:0.248991 4:0.11036 
1 1:1 2:0.474 3:0.053525 4:0.022222 
1 1:1 2:0.342 3:0.053525 4:0.025 
1 1:0.5 2:0.314 3:-0.138357 4:0.121007 
1 1:0.5 2:0.324 3:0.421902 4:0.233766 
1 1:1 2:0.442 3:0.296819 4:0.111111 
1 1:1 2:0.41 3:0.053525 4:0.033333 
-0.040926428565101258 1:1 2:0.3 3:0.5 4:1.744444 
-23.411764705882351 1:1 2:0.4 3:-0.166667 4:0.166667 
-23.411764705882351 1:1 2:0.52 3:0.666667 4:0.266667 
-0.67622403450714297 1:1 2:0.303333 3:1 4:2.09824 
-14.579424878631164 1:1 2:0.3925 3:0.017015 4:0.018519 
-23.411764705882351 1:1 2:0.3925 3:0.450136 4:0.57528 
-23.411764705882351 1:1 2:0.4 3:0.373143 4:0.205578 
-23.411764705882351 1:1 2:0.4 3:-0.014542 4:0.017857 
-23.411764705882351 1:1 2:0.4 3:0.540114 4:0.5 
